digraph Tree {
node [shape=box, style="filled, rounded", color="black", fontname="DengXian"] ;
edge [fontname="DengXian"] ;
0 [label=<氧化钾(K2O) &le; 0.605<br/>gini = 0.295<br/>samples = 35<br/>value = [9, 41]>, fillcolor="#64b3eb"] ;
1 [label=<五氧化二磷(P2O5) &le; 5.25<br/>gini = 0.137<br/>samples = 17<br/>value = [2, 25]>, fillcolor="#49a5e7"] ;
0 -> 1 [labeldistance=2.5, labelangle=45, headlabel="True"] ;
2 [label=<gini = 0.0<br/>samples = 13<br/>value = [0, 21]>, fillcolor="#399de5"] ;
1 -> 2 ;
3 [label=<二氧化硅(SiO2) &le; 67.045<br/>gini = 0.444<br/>samples = 4<br/>value = [2, 4]>, fillcolor="#9ccef2"] ;
1 -> 3 ;
4 [label=<gini = 0.0<br/>samples = 2<br/>value = [0, 3]>, fillcolor="#399de5"] ;
3 -> 4 ;
5 [label=<氧化钙(CaO) &le; 3.059<br/>gini = 0.444<br/>samples = 2<br/>value = [2, 1]>, fillcolor="#f2c09c"] ;
3 -> 5 ;
6 [label=<gini = 0.0<br/>samples = 1<br/>value = [0, 1]>, fillcolor="#399de5"] ;
5 -> 6 ;
7 [label=<gini = 0.0<br/>samples = 1<br/>value = [2, 0]>, fillcolor="#e58139"] ;
5 -> 7 ;
8 [label=<氧化钙(CaO) &le; 4.475<br/>gini = 0.423<br/>samples = 18<br/>value = [7, 16]>, fillcolor="#90c8f0"] ;
0 -> 8 [labeldistance=2.5, labelangle=-45, headlabel="False"] ;
9 [label=<氧化铁(Fe2O3) &le; 4.04<br/>gini = 0.111<br/>samples = 13<br/>value = [1, 16]>, fillcolor="#45a3e7"] ;
8 -> 9 ;
10 [label=<gini = 0.0<br/>samples = 12<br/>value = [0, 16]>, fillcolor="#399de5"] ;
9 -> 10 ;
11 [label=<gini = 0.0<br/>samples = 1<br/>value = [1, 0]>, fillcolor="#e58139"] ;
9 -> 11 ;
12 [label=<gini = 0.0<br/>samples = 5<br/>value = [6, 0]>, fillcolor="#e58139"] ;
8 -> 12 ;
}