digraph Tree {
node [shape=box, style="filled, rounded", color="black", fontname="DengXian"] ;
edge [fontname="DengXian"] ;
0 [label=<氧化铅(PbO) &le; 4.225<br/>gini = 0.295<br/>samples = 34<br/>value = [9, 41]>, fillcolor="#64b3eb"] ;
1 [label=<氧化铜(CuO) &le; 1.524<br/>gini = 0.298<br/>samples = 8<br/>value = [9, 2]>, fillcolor="#eb9d65"] ;
0 -> 1 [labeldistance=2.5, labelangle=45, headlabel="True"] ;
2 [label=<氧化铅(PbO) &le; 0.125<br/>gini = 0.444<br/>samples = 2<br/>value = [1, 2]>, fillcolor="#9ccef2"] ;
1 -> 2 ;
3 [label=<gini = 0.0<br/>samples = 1<br/>value = [0, 2]>, fillcolor="#399de5"] ;
2 -> 3 ;
4 [label=<gini = 0.0<br/>samples = 1<br/>value = [1, 0]>, fillcolor="#e58139"] ;
2 -> 4 ;
5 [label=<gini = 0.0<br/>samples = 6<br/>value = [8, 0]>, fillcolor="#e58139"] ;
1 -> 5 ;
6 [label=<gini = 0.0<br/>samples = 26<br/>value = [0, 39]>, fillcolor="#399de5"] ;
0 -> 6 [labeldistance=2.5, labelangle=-45, headlabel="False"] ;
}