digraph Tree {
node [shape=box, style="filled, rounded", color="black", fontname="DengXian"] ;
edge [fontname="DengXian"] ;
0 [label=<氧化铅(PbO) &le; 5.46<br/>gini = 0.32<br/>samples = 29<br/>value = [10, 40]>, fillcolor="#6ab6ec"] ;
1 [label=<gini = 0.0<br/>samples = 8<br/>value = [10, 0]>, fillcolor="#e58139"] ;
0 -> 1 [labeldistance=2.5, labelangle=45, headlabel="True"] ;
2 [label=<gini = 0.0<br/>samples = 21<br/>value = [0, 40]>, fillcolor="#399de5"] ;
0 -> 2 [labeldistance=2.5, labelangle=-45, headlabel="False"] ;
}