digraph Tree {
node [shape=box, style="filled, rounded", color="black", fontname="DengXian"] ;
edge [fontname="DengXian"] ;
0 [label=<二氧化硅(SiO2) &le; 64.42<br/>gini = 0.385<br/>samples = 34<br/>value = [13, 37]>, fillcolor="#7fbfee"] ;
1 [label=<氧化铁(Fe2O3) &le; 6.845<br/>gini = 0.114<br/>samples = 22<br/>value = [2, 31]>, fillcolor="#46a3e7"] ;
0 -> 1 [labeldistance=2.5, labelangle=45, headlabel="True"] ;
2 [label=<gini = 0.0<br/>samples = 20<br/>value = [0, 31]>, fillcolor="#399de5"] ;
1 -> 2 ;
3 [label=<gini = 0.0<br/>samples = 2<br/>value = [2, 0]>, fillcolor="#e58139"] ;
1 -> 3 ;
4 [label=<氧化钡(BaO) &le; 0.625<br/>gini = 0.457<br/>samples = 12<br/>value = [11, 6]>, fillcolor="#f3c6a5"] ;
0 -> 4 [labeldistance=2.5, labelangle=-45, headlabel="False"] ;
5 [label=<氧化锶(SrO) &le; 1.824<br/>gini = 0.245<br/>samples = 6<br/>value = [1, 6]>, fillcolor="#5aade9"] ;
4 -> 5 ;
6 [label=<gini = 0.0<br/>samples = 5<br/>value = [0, 6]>, fillcolor="#399de5"] ;
5 -> 6 ;
7 [label=<gini = 0.0<br/>samples = 1<br/>value = [1, 0]>, fillcolor="#e58139"] ;
5 -> 7 ;
8 [label=<gini = 0.0<br/>samples = 6<br/>value = [10, 0]>, fillcolor="#e58139"] ;
4 -> 8 ;
}