digraph Tree {
node [shape=box, style="filled, rounded", color="black", fontname="DengXian"] ;
edge [fontname="DengXian"] ;
0 [label=<氧化铝(Al2O3) &le; 2.257<br/>gini = 0.403<br/>samples = 31<br/>value = [14, 36]>, fillcolor="#86c3ef"] ;
1 [label=<氧化铅(PbO) &le; 15.555<br/>gini = 0.124<br/>samples = 10<br/>value = [14, 1]>, fillcolor="#e78a47"] ;
0 -> 1 [labeldistance=2.5, labelangle=45, headlabel="True"] ;
2 [label=<gini = 0.0<br/>samples = 9<br/>value = [14, 0]>, fillcolor="#e58139"] ;
1 -> 2 ;
3 [label=<gini = 0.0<br/>samples = 1<br/>value = [0, 1]>, fillcolor="#399de5"] ;
1 -> 3 ;
4 [label=<gini = 0.0<br/>samples = 21<br/>value = [0, 35]>, fillcolor="#399de5"] ;
0 -> 4 [labeldistance=2.5, labelangle=-45, headlabel="False"] ;
}