digraph Tree {
node [shape=box, style="filled, rounded", color="black", fontname="DengXian"] ;
edge [fontname="DengXian"] ;
0 [label=<氧化铁(Fe2O3) &le; 2.95<br/>gini = 0.295<br/>samples = 32<br/>value = [9, 41]>, fillcolor="#64b3eb"] ;
1 [label=<氧化铜(CuO) &le; 1.94<br/>gini = 0.046<br/>samples = 27<br/>value = [1, 41]>, fillcolor="#3e9fe6"] ;
0 -> 1 [labeldistance=2.5, labelangle=45, headlabel="True"] ;
2 [label=<gini = 0.0<br/>samples = 23<br/>value = [0, 37]>, fillcolor="#399de5"] ;
1 -> 2 ;
3 [label=<氧化钡(BaO) &le; 1.86<br/>gini = 0.32<br/>samples = 4<br/>value = [1, 4]>, fillcolor="#6ab6ec"] ;
1 -> 3 ;
4 [label=<gini = 0.0<br/>samples = 3<br/>value = [0, 4]>, fillcolor="#399de5"] ;
3 -> 4 ;
5 [label=<gini = 0.0<br/>samples = 1<br/>value = [1, 0]>, fillcolor="#e58139"] ;
3 -> 5 ;
6 [label=<gini = 0.0<br/>samples = 5<br/>value = [8, 0]>, fillcolor="#e58139"] ;
0 -> 6 [labeldistance=2.5, labelangle=-45, headlabel="False"] ;
}