digraph Tree {
node [shape=box, style="filled, rounded", color="black", fontname="DengXian"] ;
edge [fontname="DengXian"] ;
0 [label=<氧化铁(Fe2O3) &le; 3.3<br/>gini = 0.487<br/>samples = 32<br/>value = [21, 29]>, fillcolor="#c8e4f8"] ;
1 [label=<二氧化硅(SiO2) &le; 76.095<br/>gini = 0.064<br/>samples = 21<br/>value = [1, 29]>, fillcolor="#40a0e6"] ;
0 -> 1 [labeldistance=2.5, labelangle=45, headlabel="True"] ;
2 [label=<gini = 0.0<br/>samples = 19<br/>value = [0, 27]>, fillcolor="#399de5"] ;
1 -> 2 ;
3 [label=<氧化铁(Fe2O3) &le; 0.203<br/>gini = 0.444<br/>samples = 2<br/>value = [1, 2]>, fillcolor="#9ccef2"] ;
1 -> 3 ;
4 [label=<gini = 0.0<br/>samples = 1<br/>value = [1, 0]>, fillcolor="#e58139"] ;
3 -> 4 ;
5 [label=<gini = 0.0<br/>samples = 1<br/>value = [0, 2]>, fillcolor="#399de5"] ;
3 -> 5 ;
6 [label=<gini = 0.0<br/>samples = 11<br/>value = [20, 0]>, fillcolor="#e58139"] ;
0 -> 6 [labeldistance=2.5, labelangle=-45, headlabel="False"] ;
}