digraph Tree {
node [shape=box, style="filled, rounded", color="black", fontname="DengXian"] ;
edge [fontname="DengXian"] ;
0 [label=<氧化铁(Fe2O3) &le; 3.3<br/>gini = 0.461<br/>samples = 34<br/>value = [18, 32]>, fillcolor="#a8d4f4"] ;
1 [label=<二氧化硅(SiO2) &le; 66.325<br/>gini = 0.234<br/>samples = 25<br/>value = [5, 32]>, fillcolor="#58ace9"] ;
0 -> 1 [labeldistance=2.5, labelangle=45, headlabel="True"] ;
2 [label=<gini = 0.0<br/>samples = 21<br/>value = [0, 29]>, fillcolor="#399de5"] ;
1 -> 2 ;
3 [label=<氧化铁(Fe2O3) &le; 0.105<br/>gini = 0.469<br/>samples = 4<br/>value = [5, 3]>, fillcolor="#f5cdb0"] ;
1 -> 3 ;
4 [label=<gini = 0.0<br/>samples = 2<br/>value = [5, 0]>, fillcolor="#e58139"] ;
3 -> 4 ;
5 [label=<gini = 0.0<br/>samples = 2<br/>value = [0, 3]>, fillcolor="#399de5"] ;
3 -> 5 ;
6 [label=<gini = 0.0<br/>samples = 9<br/>value = [13, 0]>, fillcolor="#e58139"] ;
0 -> 6 [labeldistance=2.5, labelangle=-45, headlabel="False"] ;
}