digraph Tree {
node [shape=box, style="filled, rounded", color="black", fontname="DengXian"] ;
edge [fontname="DengXian"] ;
0 [label=<氧化钙(CaO) &le; 4.581<br/>gini = 0.32<br/>samples = 33<br/>value = [10, 40]>, fillcolor="#6ab6ec"] ;
1 [label=<氧化铅(PbO) &le; 3.825<br/>gini = 0.048<br/>samples = 24<br/>value = [1, 40]>, fillcolor="#3e9fe6"] ;
0 -> 1 [labeldistance=2.5, labelangle=45, headlabel="True"] ;
2 [label=<氧化锡(SnO2) &le; 0.105<br/>gini = 0.5<br/>samples = 2<br/>value = [1, 1]>, fillcolor="#ffffff"] ;
1 -> 2 ;
3 [label=<gini = 0.0<br/>samples = 1<br/>value = [0, 1]>, fillcolor="#399de5"] ;
2 -> 3 ;
4 [label=<gini = 0.0<br/>samples = 1<br/>value = [1, 0]>, fillcolor="#e58139"] ;
2 -> 4 ;
5 [label=<gini = 0.0<br/>samples = 22<br/>value = [0, 39]>, fillcolor="#399de5"] ;
1 -> 5 ;
6 [label=<gini = 0.0<br/>samples = 9<br/>value = [9, 0]>, fillcolor="#e58139"] ;
0 -> 6 [labeldistance=2.5, labelangle=-45, headlabel="False"] ;
}