digraph Tree {
node [shape=box, style="filled, rounded", color="black", fontname="DengXian"] ;
edge [fontname="DengXian"] ;
0 [label=<氧化铅(PbO) &le; 4.96<br/>gini = 0.42<br/>samples = 33<br/>value = [15, 35]>, fillcolor="#8ec7f0"] ;
1 [label=<gini = 0.0<br/>samples = 9<br/>value = [15, 0]>, fillcolor="#e58139"] ;
0 -> 1 [labeldistance=2.5, labelangle=45, headlabel="True"] ;
2 [label=<gini = 0.0<br/>samples = 24<br/>value = [0, 35]>, fillcolor="#399de5"] ;
0 -> 2 [labeldistance=2.5, labelangle=-45, headlabel="False"] ;
}