digraph Tree {
node [shape=box, style="filled, rounded", color="black", fontname="DengXian"] ;
edge [fontname="DengXian"] ;
0 [label=<氧化铜(CuO) &le; 1.674<br/>gini = 0.461<br/>samples = 31<br/>value = [18, 32]>, fillcolor="#a8d4f4"] ;
1 [label=<氧化铝(Al2O3) &le; 1.272<br/>gini = 0.225<br/>samples = 22<br/>value = [4, 27]>, fillcolor="#56ace9"] ;
0 -> 1 [labeldistance=2.5, labelangle=45, headlabel="True"] ;
2 [label=<氧化铜(CuO) &le; 0.536<br/>gini = 0.32<br/>samples = 4<br/>value = [4, 1]>, fillcolor="#eca06a"] ;
1 -> 2 ;
3 [label=<gini = 0.0<br/>samples = 3<br/>value = [4, 0]>, fillcolor="#e58139"] ;
2 -> 3 ;
4 [label=<gini = 0.0<br/>samples = 1<br/>value = [0, 1]>, fillcolor="#399de5"] ;
2 -> 4 ;
5 [label=<gini = 0.0<br/>samples = 18<br/>value = [0, 26]>, fillcolor="#399de5"] ;
1 -> 5 ;
6 [label=<氧化钙(CaO) &le; 4.456<br/>gini = 0.388<br/>samples = 9<br/>value = [14, 5]>, fillcolor="#eeae80"] ;
0 -> 6 [labeldistance=2.5, labelangle=-45, headlabel="False"] ;
7 [label=<二氧化硫(SO2) &le; 1.72<br/>gini = 0.278<br/>samples = 4<br/>value = [1, 5]>, fillcolor="#61b1ea"] ;
6 -> 7 ;
8 [label=<gini = 0.0<br/>samples = 3<br/>value = [0, 5]>, fillcolor="#399de5"] ;
7 -> 8 ;
9 [label=<gini = 0.0<br/>samples = 1<br/>value = [1, 0]>, fillcolor="#e58139"] ;
7 -> 9 ;
10 [label=<gini = 0.0<br/>samples = 5<br/>value = [13, 0]>, fillcolor="#e58139"] ;
6 -> 10 ;
}