digraph Tree {
node [shape=box, style="filled, rounded", color="black", fontname="DengXian"] ;
edge [fontname="DengXian"] ;
0 [label=<氧化铁(Fe2O3) &le; 3.3<br/>gini = 0.42<br/>samples = 34<br/>value = [15, 35]>, fillcolor="#8ec7f0"] ;
1 [label=<五氧化二磷(P2O5) &le; 7.033<br/>gini = 0.054<br/>samples = 25<br/>value = [1, 35]>, fillcolor="#3fa0e6"] ;
0 -> 1 [labeldistance=2.5, labelangle=45, headlabel="True"] ;
2 [label=<gini = 0.0<br/>samples = 22<br/>value = [0, 31]>, fillcolor="#399de5"] ;
1 -> 2 ;
3 [label=<氧化铁(Fe2O3) &le; 0.1<br/>gini = 0.32<br/>samples = 3<br/>value = [1, 4]>, fillcolor="#6ab6ec"] ;
1 -> 3 ;
4 [label=<gini = 0.0<br/>samples = 1<br/>value = [1, 0]>, fillcolor="#e58139"] ;
3 -> 4 ;
5 [label=<gini = 0.0<br/>samples = 2<br/>value = [0, 4]>, fillcolor="#399de5"] ;
3 -> 5 ;
6 [label=<gini = 0.0<br/>samples = 9<br/>value = [14, 0]>, fillcolor="#e58139"] ;
0 -> 6 [labeldistance=2.5, labelangle=-45, headlabel="False"] ;
}