digraph Tree {
node [shape=box, style="filled, rounded", color="black", fontname="DengXian"] ;
edge [fontname="DengXian"] ;
0 [label=<氧化钙(CaO) &le; 4.6<br/>gini = 0.211<br/>samples = 30<br/>value = [6, 44]>, fillcolor="#54aae9"] ;
1 [label=<gini = 0.0<br/>samples = 26<br/>value = [0, 44]>, fillcolor="#399de5"] ;
0 -> 1 [labeldistance=2.5, labelangle=45, headlabel="True"] ;
2 [label=<gini = 0.0<br/>samples = 4<br/>value = [6, 0]>, fillcolor="#e58139"] ;
0 -> 2 [labeldistance=2.5, labelangle=-45, headlabel="False"] ;
}