digraph Tree {
node [shape=box, style="filled, rounded", color="black", fontname="DengXian"] ;
edge [fontname="DengXian"] ;
0 [label=<氧化铅(PbO) &le; 4.96<br/>gini = 0.365<br/>samples = 30<br/>value = [12, 38]>, fillcolor="#78bced"] ;
1 [label=<氧化钡(BaO) &le; 0.235<br/>gini = 0.245<br/>samples = 8<br/>value = [12, 2]>, fillcolor="#e9965a"] ;
0 -> 1 [labeldistance=2.5, labelangle=45, headlabel="True"] ;
2 [label=<gini = 0.0<br/>samples = 1<br/>value = [0, 2]>, fillcolor="#399de5"] ;
1 -> 2 ;
3 [label=<gini = 0.0<br/>samples = 7<br/>value = [12, 0]>, fillcolor="#e58139"] ;
1 -> 3 ;
4 [label=<gini = 0.0<br/>samples = 22<br/>value = [0, 36]>, fillcolor="#399de5"] ;
0 -> 4 [labeldistance=2.5, labelangle=-45, headlabel="False"] ;
}