digraph Tree {
node [shape=box, style="filled, rounded", color="black", fontname="DengXian"] ;
edge [fontname="DengXian"] ;
0 [label=<氧化铝(Al2O3) &le; 2.76<br/>gini = 0.435<br/>samples = 34<br/>value = [16, 34]>, fillcolor="#96cbf1"] ;
1 [label=<五氧化二磷(P2O5) &le; 4.028<br/>gini = 0.198<br/>samples = 12<br/>value = [16, 2]>, fillcolor="#e89152"] ;
0 -> 1 [labeldistance=2.5, labelangle=45, headlabel="True"] ;
2 [label=<氧化锶(SrO) &le; 1.18<br/>gini = 0.444<br/>samples = 2<br/>value = [1, 2]>, fillcolor="#9ccef2"] ;
1 -> 2 ;
3 [label=<gini = 0.0<br/>samples = 1<br/>value = [0, 2]>, fillcolor="#399de5"] ;
2 -> 3 ;
4 [label=<gini = 0.0<br/>samples = 1<br/>value = [1, 0]>, fillcolor="#e58139"] ;
2 -> 4 ;
5 [label=<gini = 0.0<br/>samples = 10<br/>value = [15, 0]>, fillcolor="#e58139"] ;
1 -> 5 ;
6 [label=<gini = 0.0<br/>samples = 22<br/>value = [0, 32]>, fillcolor="#399de5"] ;
0 -> 6 [labeldistance=2.5, labelangle=-45, headlabel="False"] ;
}