digraph Tree {
node [shape=box, style="filled, rounded", color="black", fontname="DengXian"] ;
edge [fontname="DengXian"] ;
0 [label=<氧化铅(PbO) &le; 4.65<br/>gini = 0.365<br/>samples = 34<br/>value = [12, 38]>, fillcolor="#78bced"] ;
1 [label=<氧化钾(K2O) &le; 0.33<br/>gini = 0.142<br/>samples = 10<br/>value = [12, 1]>, fillcolor="#e78c49"] ;
0 -> 1 [labeldistance=2.5, labelangle=45, headlabel="True"] ;
2 [label=<氧化锡(SnO2) &le; 0.07<br/>gini = 0.444<br/>samples = 3<br/>value = [2, 1]>, fillcolor="#f2c09c"] ;
1 -> 2 ;
3 [label=<gini = 0.0<br/>samples = 2<br/>value = [2, 0]>, fillcolor="#e58139"] ;
2 -> 3 ;
4 [label=<gini = 0.0<br/>samples = 1<br/>value = [0, 1]>, fillcolor="#399de5"] ;
2 -> 4 ;
5 [label=<gini = 0.0<br/>samples = 7<br/>value = [10, 0]>, fillcolor="#e58139"] ;
1 -> 5 ;
6 [label=<gini = 0.0<br/>samples = 24<br/>value = [0, 37]>, fillcolor="#399de5"] ;
0 -> 6 [labeldistance=2.5, labelangle=-45, headlabel="False"] ;
}